{
  "metadata": {
    "model_type": "simple_connect_four",
    "architecture": {
      "input_size": 42,
      "hidden_sizes": [
        64,
        32
      ],
      "value_output_size": 1,
      "policy_output_size": 7
    },
    "training_config": {
      "epochs": 50,
      "batch_size": 64,
      "learning_rate": 0.0005,
      "use_attention": false,
      "use_residual": false
    },
    "final_train_loss": 1.4272242313937138,
    "final_val_loss": 1.4256311178207397,
    "best_val_loss": 1.4256176590919494,
    "epochs_completed": 50
  },
  "value_network": {
    "layers.0.weight": [
      [
        0.0729287788271904,
        0.13855236768722534,
        0.146804541349411,
        -0.030744923278689384,
        0.05851159244775772,
        0.10095987468957901,
        -0.07635196298360825,
        0.11571113020181656,
        -0.010731694288551807,
        -0.0663251280784607,
        -0.07093340158462524,
        -0.07002293318510056,
        -0.09074215590953827,
        -0.1380830556154251,
        -0.018998097628355026,
        -0.10598018020391464,
        -0.1397818773984909,
        0.02638699673116207,
        -0.09887862205505371,
        0.15356232225894928,
        0.14341042935848236,
        0.024451758712530136,
        0.08021892607212067,
        -0.06921626627445221,
        0.005944736767560244,
        0.03968671336770058,
        0.10209833830595016,
        -0.05730946362018585,
        0.08202926814556122,
        0.1112319678068161,
        0.032549045979976654,
        -0.12144306302070618,
        -0.01604600064456463,
        -0.019238842651247978,
        -0.05617697536945343,
        -0.06527083367109299,
        0.10259950906038284,
        -0.10368143767118454,
        0.14693701267242432,
        -0.02611496113240719,
        0.029879411682486534,
        -0.053218770772218704
      ],
      [
        0.13932517170906067,
        -0.08717592060565948,
        -0.12783673405647278,
        -0.13669468462467194,
        0.00796098355203867,
        0.0622742734849453,
        0.11605076491832733,
        -0.10701318830251694,
        -0.03226058930158615,
        -0.1364087164402008,
        0.07289770245552063,
        -0.09105362743139267,
        -0.06270227581262589,
        0.12560643255710602,
        -0.027202382683753967,
        -0.12487707287073135,
        0.1388794183731079,
        0.07033732533454895,
        -0.011597187258303165,
        -0.012797052972018719,
        0.046729981899261475,
        -0.07777190208435059,
        -0.08772414922714233,
        -0.0354943722486496,
        -0.08137644827365875,
        -0.005342909134924412,
        -0.04153630509972572,
        0.1286311149597168,
        0.1432783156633377,
        0.024805612862110138,
        -0.017937440425157547,
        0.12761399149894714,
        -0.051798466593027115,
        -0.0512627474963665,
        -0.1359061449766159,
        -0.09257594496011734,
        -0.01806364394724369,
        -0.14387400448322296,
        0.08314444124698639,
        0.1317664384841919,
        0.05896400287747383,
        -0.06482896208763123
      ],
      [
        -0.06492578983306885,
        -0.1265077292919159,
        -0.1260877251625061,
        -0.012142525054514408,
        -0.022134745493531227,
        -0.06190471351146698,
        -0.14425170421600342,
        -0.1457930952310562,
        0.06785274296998978,
        0.008212215267121792,
        -0.028991790488362312,
        0.12076906859874725,
        -0.05751216784119606,
        0.1260792762041092,
        -0.1528492420911789,
        -0.04567408934235573,
        0.04669494181871414,
        0.05192343518137932,
        -0.1250118911266327,
        0.008447496220469475,
        0.08637304604053497,
        0.11955536901950836,
        0.1433171182870865,
        0.049505844712257385,
        0.020972147583961487,
        0.1231715977191925,
        -0.13396663963794708,
        -0.006080303806811571,
        -0.10615316033363342,
        -0.08262849599123001,
        0.12661585211753845,
        0.01678275130689144,
        -0.12571480870246887,
        -0.14427480101585388,
        0.012392265722155571,
        0.044249992817640305,
        -0.12413855642080307,
        0.09396339952945709,
        0.057703305035829544,
        -0.13713762164115906,
        0.035867393016815186,
        -0.15318915247917175
      ],
      [
        0.08028556406497955,
        -0.001391690457239747,
        -0.06315133720636368,
        0.10818693786859512,
        0.14462003111839294,
        -0.1294621378183365,
        0.03349227085709572,
        -0.16645894944667816,
        -0.06331298500299454,
        -0.14915601909160614,
        0.13375987112522125,
        0.043520085513591766,
        -0.0749204009771347,
        -0.08394483476877213,
        -0.09885945171117783,
        -0.09538618475198746,
        -0.12471897155046463,
        -0.14380203187465668,
        0.10060373693704605,
        -0.051470786333084106,
        0.060485951602458954,
        0.11323654651641846,
        0.011630370281636715,
        0.12804977595806122,
        0.04393259808421135,
        0.07382477819919586,
        0.06520520150661469,
        -0.07032284885644913,
        -0.1455547958612442,
        -0.07833690196275711,
        -0.005159829743206501,
        -0.12217793613672256,
        0.13481774926185608,
        -0.12571701407432556,
        0.11074701696634293,
        -0.04918210208415985,
        -0.11323382705450058,
        -0.06998433917760849,
        0.07042907923460007,
        -0.1061292514204979,
        -0.05950518324971199,
        -0.08828183263540268
      ],
      [
        -0.0454307496547699,
        0.07062885910272598,
        0.05267059803009033,
        -0.03875422850251198,
        0.12150584161281586,
        0.13725188374519348,
        0.0428936667740345,
        0.06571370363235474,
        -0.046804435551166534,
        -0.13571543991565704,
        -0.10998796671628952,
        -0.007358934730291367,
        -0.012643643654882908,
        0.14379072189331055,
        -0.01951133832335472,
        0.03957434371113777,
        0.017454568296670914,
        -0.025816660374403,
        0.035988908261060715,
        0.14517217874526978,
        -0.10886821150779724,
        -0.07467743009328842,
        -0.11950191855430603,
        0.09926409274339676,
        -0.021496884524822235,
        -0.0034362750593572855,
        -0.0677887499332428,
        0.07353819161653519,
        0.10537612438201904,
        -0.06786157190799713,
        0.12250469624996185,
        0.037018127739429474,
        0.0462777204811573,
        0.11804243177175522,
        0.08574552088975906,
        0.10567905008792877,
        0.08776290714740753,
        -0.09078370779752731,
        0.0714787021279335,
        -0.04245495796203613,
        0.029380131512880325,
        0.12225406616926193
      ],
      [
        0.1691509634256363,
        0.11822354793548584,
        0.1943916231393814,
        0.0826423317193985,
        -0.14780789613723755,
        -0.09905365854501724,
        -0.04259387403726578,
        0.1073579415678978,
        0.050897084176540375,
        0.03359710052609444,
        0.14306196570396423,
        0.029097815975546837,
        -0.07545941323041916,
        0.08458148688077927,
        0.0008709377725608647,
        -0.012843278236687183,
        0.07605605572462082,
        0.13427388668060303,
        -0.0792536586523056,
        -0.1036086305975914,
        0.025915861129760742,
        0.12406047433614731,
        -0.13809427618980408,
        -0.05941999703645706,
        0.14561334252357483,
        -0.08832570165395737,
        0.05722839757800102,
        -0.14306603372097015,
        0.028022075071930885,
        0.11946854740381241,
        0.11023520678281784,
        0.07209533452987671,
        -0.06099586561322212,
        0.0008768607513047755,
        0.1490107774734497,
        -0.1215907484292984,
        0.11533775925636292,
        -0.008941791020333767,
        0.090325728058815,
        0.08791685104370117,
        -0.12790220975875854,
        0.09978224337100983
      ],
      [
        -0.10932900756597519,
        -0.10202611982822418,
        -0.015054486691951752,
        0.05834389105439186,
        -0.13782541453838348,
        -0.04973897337913513,
        0.12662000954151154,
        -0.017481205984950066,
        -0.2071262001991272,
        0.014735913835465908,
        0.139743372797966,
        -0.05325458198785782,
        -0.053578492254018784,
        0.026934560388326645,
        0.12282931804656982,
        -0.03353452309966087,
        0.08046828210353851,
        0.013503361493349075,
        0.1418420523405075,
        -0.14263595640659332,
        0.1073904037475586,
        -0.1419975757598877,
        0.009037790820002556,
        -0.02238629013299942,
        -0.13271525502204895,
        0.00897885486483574,
        0.061020273715257645,
        0.09538876265287399,
        0.07291379570960999,
        -0.07739919424057007,
        0.051481693983078,
        0.06680037826299667,
        -0.08779548108577728,
        -0.10279164463281631,
        -0.11663360893726349,
        0.075818732380867,
        -0.04331502690911293,
        0.05493340268731117,
        0.1468110978603363,
        0.03236958757042885,
        -0.13062016665935516,
        0.004750370513647795
      ],
      [
        0.0038218768313527107,
        -0.012837465852499008,
        -0.08430805057287216,
        0.1386963576078415,
        -0.10617869347333908,
        0.08864675462245941,
        0.025868145748972893,
        -0.07322173565626144,
        0.10022474080324173,
        0.03335747867822647,
        0.15276110172271729,
        -0.1409693956375122,
        -0.04398822411894798,
        0.09471216052770615,
        0.037955909967422485,
        0.06120133027434349,
        -0.06986486911773682,
        -0.04095741733908653,
        -0.09596678614616394,
        0.08761361986398697,
        -0.02322012558579445,
        0.010509269312024117,
        0.06608923524618149,
        -0.013411535881459713,
        -0.027993397787213326,
        0.09330173581838608,
        -0.11966799944639206,
        -0.02171263098716736,
        0.11600543558597565,
        -0.12124256044626236,
        -0.09672750532627106,
        -0.11368893831968307,
        0.14248214662075043,
        -0.0016091783763840795,
        0.15392538905143738,
        -0.08659397810697556,
        0.15202710032463074,
        -0.005296371411532164,
        -0.008850609883666039,
        -0.15409038960933685,
        0.014524820260703564,
        0.06664778292179108
      ],
      [
        -0.05584067106246948,
        0.025320103392004967,
        -0.08646312355995178,
        0.09398188441991806,
        -0.13429318368434906,
        -0.03809966519474983,
        0.07381368428468704,
        -0.1387065351009369,
        -0.1595982164144516,
        0.0018702246015891433,
        -0.10284771025180817,
        -0.0401252917945385,
        -0.11605387181043625,
        0.011613797396421432,
        -0.11243227124214172,
        -0.1297910064458847,
        0.1143835112452507,
        -0.12900887429714203,
        0.0897367000579834,
        0.020734749734401703,
        0.06859670579433441,
        -0.12828996777534485,
        0.12632505595684052,
        -0.0004167985753156245,
        -0.03798523172736168,
        0.10061613470315933,
        0.0275738388299942,
        0.15254275500774384,
        0.0818074494600296,
        -0.041385672986507416,
        -0.004484663717448711,
        0.0945446789264679,
        0.053533535450696945,
        0.08302061259746552,
        -0.02559771202504635,
        -0.06725328415632248,
        0.14297908544540405,
        -0.07538784295320511,
        -0.13776518404483795,
        -0.03911289945244789,
        -0.11524650454521179,
        0.14129020273685455
      ],
      [
        0.07541300356388092,
        -0.06754768639802933,
        -0.13491293787956238,
        -0.04240194708108902,
        -0.05637938529253006,
        0.15417712926864624,
        0.08913856744766235,
        -0.0028003992047160864,
        0.13435037434101105,
        0.09349020570516586,
        0.07411471009254456,
        -0.14662481844425201,
        -0.01865393854677677,
        -0.04957827925682068,
        -0.11618625372648239,
        0.017191730439662933,
        -0.0683557540178299,
        0.043327461928129196,
        0.05414823815226555,
        0.07279668003320694,
        -0.15177588164806366,
        -0.016624337062239647,
        -0.08180157840251923,
        0.09370681643486023,
        0.006689121015369892,
        -0.06327693164348602,
        -0.0730663537979126,
        0.04510568454861641,
        -0.14828665554523468,
        -0.09698844701051712,
        0.1076798215508461,
        0.0981682687997818,
        -0.024066654965281487,
        0.13706906139850616,
        0.09328718483448029,
        0.13374148309230804,
        -0.1127929836511612,
        -0.08271565288305283,
        0.08269674330949783,
        -0.13421623408794403,
        0.08571243286132812,
        -0.12895353138446808
      ],
      [
        0.03260178491473198,
        -0.08620013296604156,
        -0.11706303805112839,
        0.09365537017583847,
        -0.10757779330015182,
        0.048335518687963486,
        0.11226674169301987,
        0.03274621441960335,
        0.15507689118385315,
        -0.015641532838344574,
        0.06224800646305084,
        -0.07219306379556656,
        -0.05494758486747742,
        0.06285316497087479,
        -0.1541142761707306,
        0.12722431123256683,
        0.060660626739263535,
        0.124078169465065,
        -0.1082690879702568,
        -0.10541773587465286,
        0.1112031415104866,
        0.08210131525993347,
        0.14590798318386078,
        -0.03066391311585903,
        0.12894120812416077,
        0.03418092057108879,
        -0.13486507534980774,
        0.07319934666156769,
        0.05032380670309067,
        -0.1481381058692932,
        0.10553720593452454,
        -0.08834961801767349,
        0.14330141246318817,
        -0.14601193368434906,
        -0.14086265861988068,
        0.06797412782907486,
        0.1140597015619278,
        -0.09878898411989212,
        -0.1143421083688736,
        0.1408970206975937,
        -0.1120937392115593,
        0.09591840952634811
      ],
      [
        -0.1536562442779541,
        -0.007896676659584045,
        0.08189036697149277,
        0.0620666928589344,
        0.0687306672334671,
        0.08988054096698761,
        0.14418445527553558,
        0.09529484063386917,
        0.105857715010643,
        0.016560453921556473,
        0.008666444569826126,
        0.10210400074720383,
        -0.13380812108516693,
        -0.09895867109298706,
        0.06262215226888657,
        -0.05865245684981346,
        0.008708255365490913,
        0.12458015233278275,
        -0.13911817967891693,
        0.05869097262620926,
        -0.06510202586650848,
        -0.007406300399452448,
        -0.013988292776048183,
        -0.14854487776756287,
        0.05745181813836098,
        0.056886959820985794,
        -0.04371020942926407,
        -0.1478990912437439,
        -0.07041025906801224,
        -0.02538360096514225,
        -0.13558989763259888,
        0.08976639062166214,
        -0.049126993864774704,
        -0.037451665848493576,
        0.14937132596969604,
        0.06408891826868057,
        0.0006112089031375945,
        -0.0026191226206719875,
        0.11020925641059875,
        -0.08252177387475967,
        -0.08343274146318436,
        0.10468439012765884
      ],
      [
        0.0767914354801178,
        -0.02819535695016384,
        0.07373252511024475,
        -0.06597436219453812,
        -0.11481285840272903,
        -0.1104045882821083,
        -0.07688196003437042,
        -0.17004473507404327,
        -0.09715283662080765,
        -0.1787251979112625,
        -0.0783877819776535,
        -0.03909454122185707,
        -0.002280628774315119,
        -0.007422818336635828,
        -0.07181430608034134,
        0.04079567641019821,
        0.05516452714800835,
        0.055320899933576584,
        0.08356797695159912,
        0.06789602339267731,
        0.12752878665924072,
        0.010611743666231632,
        -0.12066900730133057,
        -0.008071091957390308,
        0.048163898289203644,
        -0.07177449762821198,
        -0.07716604322195053,
        0.11211992055177689,
        0.0640573501586914,
        0.06935572624206543,
        -0.07082238793373108,
        0.09632391482591629,
        -0.0488203763961792,
        -0.13746944069862366,
        -0.10671577602624893,
        -0.05985800549387932,
        -0.09013401716947556,
        -0.03392329066991806,
        -0.007808953523635864,
        0.05266690254211426,
        0.09392997622489929,
        -0.05544903501868248
      ],
      [
        -0.045820821076631546,
        -0.02018580585718155,
        -0.09453403204679489,
        -0.019049786031246185,
        -0.09352051466703415,
        0.0015630268026143312,
        -0.0987929180264473,
        0.0014562472933903337,
        0.028126351535320282,
        0.0071379076689481735,
        0.0211336687207222,
        -0.045073069632053375,
        -0.12936241924762726,
        -0.02232441119849682,
        0.09620196372270584,
        0.12396498769521713,
        0.15297150611877441,
        -0.03925943002104759,
        -0.022757690399885178,
        0.0881667211651802,
        0.05729607120156288,
        0.04027378931641579,
        0.0600205734372139,
        0.06269112974405289,
        0.061559174209833145,
        0.11037901788949966,
        0.11321638524532318,
        0.1445905715227127,
        -0.08558455109596252,
        -0.14320601522922516,
        0.1334182322025299,
        -0.0798918753862381,
        -2.838254840753507e-05,
        0.04056839272379875,
        -0.05082816258072853,
        -0.024906780570745468,
        -0.0009465570910833776,
        0.09849748760461807,
        0.005137167870998383,
        -0.014293749816715717,
        -0.03856421262025833,
        0.036159697920084
      ],
      [
        -0.11189474910497665,
        -0.079637810587883,
        0.13040515780448914,
        -0.02219763584434986,
        -0.01070445217192173,
        -0.08845563977956772,
        -0.03962036594748497,
        -0.000296762038487941,
        -0.13830284774303436,
        -0.1244528591632843,
        0.00564658222720027,
        0.09809012711048126,
        0.0001677200780250132,
        0.06845834106206894,
        -0.009766889736056328,
        0.13055910170078278,
        -0.04956040158867836,
        -0.06544749438762665,
        0.13933312892913818,
        -0.03617051616311073,
        -0.13814617693424225,
        0.05120498687028885,
        -0.062279682606458664,
        -0.12872621417045593,
        -0.0895826667547226,
        -0.028876695781946182,
        -0.03127407282590866,
        -0.015484473668038845,
        -0.072384774684906,
        -0.09371338039636612,
        0.03988064453005791,
        0.003436679719015956,
        0.15038147568702698,
        -0.1333344280719757,
        0.12271486967802048,
        0.0643712729215622,
        0.11440358310937881,
        -0.10187488049268723,
        -0.10436414182186127,
        -0.0905957892537117,
        -0.009603161364793777,
        0.04001089558005333
      ],
      [
        0.16534771025180817,
        -0.019899217411875725,
        0.10708657652139664,
        -0.1140136569738388,
        -0.04074650630354881,
        0.02876097708940506,
        0.11725662648677826,
        -0.028849950060248375,
        0.018114596605300903,
        0.14606568217277527,
        -0.12369771301746368,
        0.14501525461673737,
        0.07917355000972748,
        -0.08207348734140396,
        0.09585776180028915,
        0.05430944636464119,
        -0.0948413610458374,
        0.03274958208203316,
        -0.10963074862957001,
        -0.08981965482234955,
        -0.14730587601661682,
        -0.11066550761461258,
        0.08615628629922867,
        -0.03942534700036049,
        0.027247117832303047,
        -0.03228409215807915,
        -0.054453641176223755,
        -0.12145213037729263,
        0.08392931520938873,
        -0.14205892384052277,
        -0.14414313435554504,
        -0.07793204486370087,
        0.03145812824368477,
        0.06914641708135605,
        0.038014039397239685,
        -0.027675891295075417,
        0.14383435249328613,
        -0.12727877497673035,
        0.006788965780287981,
        -0.05582726001739502,
        -0.030713064596056938,
        0.06757424771785736
      ],
      [
        0.059998318552970886,
        -0.007194617763161659,
        -0.10628607869148254,
        -0.05557268112897873,
        0.07413043826818466,
        -0.08087356388568878,
        -0.1086319163441658,
        0.1508467197418213,
        0.003712172619998455,
        -0.129097580909729,
        -0.027836069464683533,
        0.03840615227818489,
        0.06511674076318741,
        -0.11477676779031754,
        -0.012234221212565899,
        0.07745102792978287,
        0.05125042423605919,
        0.014221073128283024,
        0.0750804916024208,
        0.0557713583111763,
        0.04363999888300896,
        0.05080538988113403,
        -0.0016064008232206106,
        -0.1446332037448883,
        0.1106095016002655,
        -0.05827735736966133,
        0.030288686975836754,
        -0.030565908178687096,
        -0.02764778584241867,
        -0.13990530371665955,
        -0.013984043151140213,
        -0.016749531030654907,
        -0.13506585359573364,
        0.0006999802426435053,
        0.008356094360351562,
        0.1268477737903595,
        0.06828337162733078,
        0.026044383645057678,
        0.01811334490776062,
        -0.015993520617485046,
        0.11071865260601044,
        0.15272751450538635
      ],
      [
        0.05635400488972664,
        0.17169320583343506,
        0.1533980369567871,
        0.07171070575714111,
        -0.11739645898342133,
        0.10541550815105438,
        0.027712754905223846,
        0.1711120903491974,
        -0.06602689623832703,
        -0.029999732971191406,
        -0.03743932396173477,
        0.08035232126712799,
        0.14256644248962402,
        0.10738828778266907,
        -0.12763479351997375,
        0.08452510833740234,
        -0.08217751979827881,
        0.12716585397720337,
        -0.150116428732872,
        -0.044994451105594635,
        -0.0853666365146637,
        -0.1193261593580246,
        0.08135231584310532,
        0.03496415540575981,
        0.028316108509898186,
        -0.1138443574309349,
        -0.008946334011852741,
        0.14228303730487823,
        0.0020396807231009007,
        -0.04870454594492912,
        0.018827931955456734,
        -0.06098765879869461,
        -0.0018265448743477464,
        0.06852071732282639,
        0.06852581351995468,
        -0.07250865548849106,
        -0.029334237799048424,
        -0.10168073326349258,
        0.0771336555480957,
        0.10828282684087753,
        -0.1429489254951477,
        0.11892878264188766
      ],
      [
        0.04448143392801285,
        -0.08985859900712967,
        0.0696786418557167,
        -0.0014177295379340649,
        -0.11934952437877655,
        -0.14056022465229034,
        0.11466134339570999,
        -0.052688680589199066,
        -0.09120137244462967,
        0.1395668238401413,
        -0.06534218043088913,
        0.08357775956392288,
        -0.12901055812835693,
        -0.04827750101685524,
        0.03986843302845955,
        -0.08495796471834183,
        -0.06809413433074951,
        -0.09586576372385025,
        0.009490348398685455,
        0.08198390156030655,
        -0.002418954623863101,
        0.14421546459197998,
        0.04264107346534729,
        -0.05221804231405258,
        -0.07903888821601868,
        0.045722924172878265,
        -0.05762404203414917,
        -0.004671366419643164,
        0.12894505262374878,
        -0.08244875073432922,
        0.13743358850479126,
        0.014034444466233253,
        0.08157669007778168,
        -0.08826766908168793,
        -0.005069770850241184,
        -0.1477002650499344,
        -0.09830959141254425,
        -0.11935129016637802,
        -0.09773244708776474,
        -0.09539036452770233,
        0.07354297488927841,
        -0.03720461204648018
      ],
      [
        -0.015191026963293552,
        0.21152186393737793,
        0.01101102028042078,
        -0.018287817016243935,
        0.10526987910270691,
        -0.033223457634449005,
        0.041231345385313034,
        0.15475858747959137,
        -0.10452519357204437,
        0.07785632461309433,
        0.020795727148652077,
        0.05700205639004707,
        -0.004309677518904209,
        -0.03907296434044838,
        0.05747499316930771,
        -0.05490395426750183,
        -0.01986524648964405,
        -0.14597643911838531,
        0.11881468445062637,
        0.05770313739776611,
        0.01005849614739418,
        0.0036143879406154156,
        -0.047317810356616974,
        0.017978772521018982,
        -0.10438069701194763,
        -0.003255807561799884,
        0.09165871143341064,
        -0.14003078639507294,
        0.030998636037111282,
        0.010181683115661144,
        -0.06912785768508911,
        0.10194244980812073,
        0.09767685830593109,
        -0.06740452349185944,
        0.009906209073960781,
        -0.014708396047353745,
        -0.05643002688884735,
        -0.012534086592495441,
        -0.04383757337927818,
        0.04222631826996803,
        0.12748807668685913,
        -0.12425088882446289
      ],
      [
        0.17720159888267517,
        -0.023750200867652893,
        0.10278210788965225,
        -0.08536578714847565,
        -0.12290416657924652,
        -0.041678935289382935,
        0.13375498354434967,
        0.021387308835983276,
        0.09126517921686172,
        -0.024675564840435982,
        -0.04530736058950424,
        -0.041177816689014435,
        0.10209320485591888,
        0.10115527361631393,
        0.13779237866401672,
        -0.12806548178195953,
        0.14870788156986237,
        -0.004520219750702381,
        0.1496424823999405,
        0.13367973268032074,
        -0.08600399643182755,
        0.08860362321138382,
        -0.08867819607257843,
        0.0737915188074112,
        -0.14530691504478455,
        0.08748379349708557,
        -0.07529384642839432,
        0.07473860681056976,
        0.025193439796566963,
        -0.07793382555246353,
        0.15380944311618805,
        0.07441354542970657,
        -0.021050967276096344,
        -0.015423827804625034,
        -0.053931791335344315,
        -0.051041461527347565,
        0.12057235836982727,
        0.0741930678486824,
        0.07472176104784012,
        -0.08999810367822647,
        0.008234746754169464,
        0.0032790950499475002
      ],
      [
        0.20922452211380005,
        0.14265157282352448,
        -0.05495744198560715,
        -0.010121515020728111,
        -0.02861400507390499,
        0.12551851570606232,
        -0.013516255654394627,
        0.15684927999973297,
        -0.13364627957344055,
        -0.006072516553103924,
        -0.13711470365524292,
        -0.14421334862709045,
        0.0444297268986702,
        0.08750588446855545,
        0.04794739559292793,
        -0.005239863879978657,
        0.06521689891815186,
        -0.08892197161912918,
        -0.03112342394888401,
        0.04074137285351753,
        -0.042955782264471054,
        0.1513909101486206,
        -0.02447490021586418,
        0.085196353495121,
        -0.019006356596946716,
        0.027930304408073425,
        0.028951874002814293,
        -0.12369390577077866,
        -0.018537208437919617,
        0.15134836733341217,
        0.06363820284605026,
        -0.01941436342895031,
        0.10149996727705002,
        -0.022042719647288322,
        0.04841339960694313,
        -0.15355299413204193,
        -0.05794338881969452,
        -0.04031410813331604,
        0.06508484482765198,
        -0.01428175624459982,
        0.1484333574771881,
        0.08679532259702682
      ],
      [
        0.07952207326889038,
        -0.026906214654445648,
        -0.08249232172966003,
        0.1327560395002365,
        0.08269412815570831,
        -0.026774197816848755,
        0.13347937166690826,
        -0.012923551723361015,
        0.07913830876350403,
        0.11921104788780212,
        -0.03433959186077118,
        0.004618390928953886,
        -0.09753835201263428,
        -0.051171861588954926,
        -0.10040813684463501,
        0.0032177313696593046,
        -0.13039369881153107,
        0.06395397335290909,
        0.10876163095235825,
        -0.03562524914741516,
        -0.09515464305877686,
        -0.015021303668618202,
        -0.06778356432914734,
        -0.030779927968978882,
        0.0020740414038300514,
        -0.15240724384784698,
        -0.0010694132652133703,
        -0.030049191787838936,
        0.12318885326385498,
        -0.022960543632507324,
        -0.017459241673350334,
        0.0016866003861650825,
        -0.08663630485534668,
        -0.1447421908378601,
        0.09159056097269058,
        0.03050263226032257,
        -0.11736105382442474,
        -0.034560710191726685,
        -0.08069414645433426,
        -0.07467242330312729,
        -0.017470480874180794,
        -0.1211017370223999
      ],
      [
        0.07123441994190216,
        -0.03908668830990791,
        0.03203015774488449,
        0.011343840509653091,
        -0.13140691816806793,
        -0.14778539538383484,
        0.09359483420848846,
        0.08567878603935242,
        0.14884035289287567,
        -0.057427167892456055,
        0.004579063504934311,
        0.10514459758996964,
        -0.057627998292446136,
        0.11658243089914322,
        -0.14001208543777466,
        0.06629998236894608,
        -0.13844545185565948,
        -0.09432937204837799,
        0.016104180365800858,
        0.018809793516993523,
        0.004355810582637787,
        0.08447588235139847,
        -0.02392338030040264,
        -0.01725287362933159,
        0.10191436111927032,
        -0.027488287538290024,
        -0.10272994637489319,
        -0.10087082535028458,
        0.047540292143821716,
        -0.09285920113325119,
        -0.1508551836013794,
        -0.033980369567871094,
        -0.09005393087863922,
        -0.08098505437374115,
        0.10484909266233444,
        -0.010767048224806786,
        -0.13979975879192352,
        -0.028858834877610207,
        -0.11052437126636505,
        0.039421577006578445,
        0.012154407799243927,
        0.06762684136629105
      ],
      [
        0.01053647417575121,
        0.12882067263126373,
        -0.15264804661273956,
        -0.06917884945869446,
        -0.0318378247320652,
        -0.09955080598592758,
        0.08964713662862778,
        -0.04021681472659111,
        -0.11012129485607147,
        -0.10285074263811111,
        0.05096593499183655,
        0.060091760009527206,
        -0.05321768298745155,
        -0.11642606556415558,
        -0.13215923309326172,
        0.00673032458871603,
        0.045905452221632004,
        0.14759083092212677,
        -0.10891646146774292,
        -0.056241411715745926,
        0.08839519321918488,
        0.06071840226650238,
        -0.0003062114701606333,
        -0.0924115777015686,
        0.08114785701036453,
        0.0765395313501358,
        0.09656032174825668,
        0.048992693424224854,
        -0.01774185337126255,
        -0.13696429133415222,
        -0.06806188821792603,
        -0.14127293229103088,
        0.14360037446022034,
        0.07185699790716171,
        0.07301420718431473,
        -0.027245132252573967,
        0.1041932925581932,
        -0.05954305827617645,
        -0.13200104236602783,
        -0.1190578043460846,
        -0.04659349471330643,
        0.005898107308894396
      ],
      [
        0.05230813845992088,
        -0.04057760909199715,
        0.06602967530488968,
        -0.14295914769172668,
        0.04168655350804329,
        -0.031950969249010086,
        0.13326503336429596,
        0.06783245503902435,
        0.12135826051235199,
        0.06521888822317123,
        -0.0032717003487050533,
        -0.03884178400039673,
        0.07380500435829163,
        0.0055673206225037575,
        -0.057678014039993286,
        -0.0927823856472969,
        -0.0015299352817237377,
        -0.12681198120117188,
        -0.01541772112250328,
        0.13597211241722107,
        0.12445532530546188,
        -0.012070860713720322,
        0.01681782864034176,
        -0.004801543895155191,
        -0.05218423157930374,
        -0.061207398772239685,
        -0.11809452623128891,
        -0.056423626840114594,
        0.14227671921253204,
        -0.09949222207069397,
        0.024601876735687256,
        -0.03825673460960388,
        -0.034076884388923645,
        -0.06239299103617668,
        0.07500078529119492,
        -0.00613504508510232,
        -0.03410712257027626,
        -0.03439731523394585,
        -0.052595917135477066,
        -0.12163331359624863,
        0.022987160831689835,
        -0.05155523493885994
      ],
      [
        -0.12796568870544434,
        -0.003186939051374793,
        -0.003898985916748643,
        -0.11213231831789017,
        -0.08103115111589432,
        -0.0847727358341217,
        -0.016440927982330322,
        -0.02501959353685379,
        -0.04927996173501015,
        0.08358541131019592,
        0.035553235560655594,
        0.06443659216165543,
        0.027375493198633194,
        0.11224336177110672,
        -0.012828360311686993,
        -0.057078227400779724,
        0.02001865580677986,
        -0.07616207748651505,
        0.05478711426258087,
        0.13547386229038239,
        -0.07216209173202515,
        -0.04372842237353325,
        -0.10313447564840317,
        -0.020544588565826416,
        -0.09218313544988632,
        -0.14356715977191925,
        0.01796688884496689,
        -0.1269402652978897,
        -0.08644028007984161,
        0.11865614354610443,
        0.057448431849479675,
        -0.03770606219768524,
        -0.007895020768046379,
        0.00814569927752018,
        0.010413875803351402,
        0.14367417991161346,
        -0.04348408803343773,
        0.02447381429374218,
        -0.11471796035766602,
        0.11159735172986984,
        -0.11743564158678055,
        -0.12433044612407684
      ],
      [
        -0.1425975114107132,
        -0.10007140785455704,
        0.11168595403432846,
        0.030355017632246017,
        -0.10053286701440811,
        -0.13476769626140594,
        0.10713531076908112,
        0.02281825803220272,
        -0.17798762023448944,
        -0.060478899627923965,
        -0.071566641330719,
        0.10488041490316391,
        -0.08557248115539551,
        0.06825344264507294,
        -0.003636994631960988,
        0.09301840513944626,
        0.03746077045798302,
        0.006779676768928766,
        0.024982381612062454,
        0.07553379982709885,
        -0.14510555565357208,
        -0.06305011361837387,
        0.06718818843364716,
        -0.07206123322248459,
        -0.12538036704063416,
        -0.1224571242928505,
        -0.03992944583296776,
        0.02032070979475975,
        -0.05469710752367973,
        0.10877763479948044,
        0.1239461675286293,
        -0.0941932201385498,
        -0.12342443317174911,
        -0.03604727238416672,
        -0.07572248578071594,
        -0.022226184606552124,
        -0.04567953199148178,
        0.10913572460412979,
        0.0011998111149296165,
        -0.09078816324472427,
        0.05506766214966774,
        0.050547242164611816
      ],
      [
        0.17909814417362213,
        -0.03620030730962753,
        0.124899722635746,
        -0.047482386231422424,
        -0.07175397127866745,
        0.05396589636802673,
        0.017194068059325218,
        -0.17270910739898682,
        -0.029750222340226173,
        -0.15323151648044586,
        0.13088709115982056,
        -0.026543423533439636,
        -0.11998644471168518,
        -0.015488704666495323,
        -0.12295875698328018,
        0.09765055775642395,
        -0.07495421171188354,
        -0.1496594101190567,
        0.15264591574668884,
        -0.15227441489696503,
        0.0029247270431369543,
        -0.06342964619398117,
        0.11261145025491714,
        0.1287442296743393,
        0.1158876046538353,
        0.06731992959976196,
        -0.10412494093179703,
        0.08860374987125397,
        0.10907724499702454,
        0.06761578470468521,
        0.024653932079672813,
        -0.10272946953773499,
        -0.07972627133131027,
        -0.07823053002357483,
        -0.1297328770160675,
        0.11319705843925476,
        0.06455081701278687,
        -0.08812042325735092,
        0.09428784251213074,
        0.04199932888150215,
        0.03904695808887482,
        -0.03761771321296692
      ],
      [
        -0.1191362589597702,
        -0.14640431106090546,
        0.06575966626405716,
        0.12478440254926682,
        -0.13391155004501343,
        -0.13529859483242035,
        0.12703686952590942,
        -0.09981294721364975,
        -0.012258961796760559,
        0.043517328798770905,
        0.12499968707561493,
        -0.04174835607409477,
        -0.07661113888025284,
        0.024680953472852707,
        0.023975012823939323,
        -0.12340714037418365,
        0.12151870131492615,
        0.02627342939376831,
        0.0616784431040287,
        0.06613858789205551,
        -0.02816770225763321,
        0.05662912875413895,
        0.001601489493623376,
        0.08435551077127457,
        0.12612786889076233,
        0.13800708949565887,
        0.03432338684797287,
        0.004892485681921244,
        -0.055696550756692886,
        -0.028753729537129402,
        -0.1319490373134613,
        -0.12376831471920013,
        0.08252228796482086,
        0.010563348419964314,
        -0.08790209889411926,
        0.008318036794662476,
        -0.0851992592215538,
        -0.07457979023456573,
        0.058064479380846024,
        0.04529435560107231,
        0.09241965413093567,
        -0.12977969646453857
      ],
      [
        -0.12484733760356903,
        -0.026837220415472984,
        0.06066560000181198,
        -0.1437213271856308,
        -0.03684336319565773,
        -0.024566596373915672,
        -0.06825076043605804,
        0.08825188875198364,
        -0.13333311676979065,
        -0.11118382215499878,
        -0.1297394335269928,
        0.034304533153772354,
        0.14843247830867767,
        0.1289852410554886,
        0.013314487412571907,
        -0.07601214945316315,
        -0.03904498741030693,
        -0.07099233567714691,
        -0.12829945981502533,
        -0.1297590136528015,
        -0.04082602635025978,
        0.032079823315143585,
        -0.112164705991745,
        0.12452951073646545,
        0.08126146346330643,
        -0.11728706955909729,
        -0.07337073236703873,
        -0.14713844656944275,
        0.04677237942814827,
        -0.1330583542585373,
        -0.004637631122022867,
        -0.06453360617160797,
        -0.11252976208925247,
        -0.08310703188180923,
        0.06560879200696945,
        0.040403008460998535,
        -0.10158763825893402,
        -0.08189555257558823,
        -0.07419393211603165,
        0.041435856372117996,
        -0.062225088477134705,
        0.08510568737983704
      ],
      [
        0.006143653765320778,
        -0.12074582278728485,
        -0.004908341448754072,
        0.06593693047761917,
        0.13669314980506897,
        0.1489427536725998,
        0.023358507081866264,
        -0.11511934548616409,
        0.08880316466093063,
        0.09453301876783371,
        -0.06870574504137039,
        -0.03158021345734596,
        0.14256154000759125,
        -0.029671186581254005,
        0.06880680471658707,
        -0.02656494453549385,
        0.07056420296430588,
        -0.06838871538639069,
        -0.054161813110113144,
        0.0037336021196097136,
        0.13853885233402252,
        -0.05748746544122696,
        -0.036839794367551804,
        -0.11815145611763,
        0.0023146586026996374,
        0.14116284251213074,
        0.11359558999538422,
        0.01696365885436535,
        -0.028659017756581306,
        0.026391226798295975,
        -0.03614702448248863,
        0.08284818381071091,
        0.05448044091463089,
        0.06284680217504501,
        0.04020874574780464,
        0.0031714141368865967,
        -0.09878239780664444,
        -0.14272791147232056,
        -0.062491513788700104,
        -0.030184058472514153,
        0.07715877890586853,
        -0.10353733599185944
      ],
      [
        0.030339179560542107,
        -0.011877940967679024,
        -0.08064861595630646,
        -0.019654447212815285,
        -0.1076895147562027,
        0.014666493982076645,
        0.04714008420705795,
        0.14648553729057312,
        -0.05927255004644394,
        0.13893865048885345,
        -0.14289039373397827,
        -0.06372126936912537,
        -0.045369550585746765,
        -0.11280516535043716,
        0.10195686668157578,
        -0.019788099452853203,
        0.05971498787403107,
        -0.062368471175432205,
        -0.13734742999076843,
        0.15055234730243683,
        -0.08087626844644547,
        0.05152157321572304,
        0.07724019140005112,
        0.14875875413417816,
        -0.11216150969266891,
        0.11620546132326126,
        -0.12923529744148254,
        -0.02313609980046749,
        -0.10889696329832077,
        -0.026117868721485138,
        0.1418716162443161,
        -0.04237176105380058,
        -0.14093050360679626,
        -0.021055124700069427,
        -0.14883668720722198,
        0.007451899815350771,
        -0.12031101435422897,
        0.027375437319278717,
        0.12858326733112335,
        -0.021812623366713524,
        0.06970793008804321,
        0.08641921728849411
      ],
      [
        0.11949696391820908,
        0.1855248063802719,
        0.18195821344852448,
        0.07028883695602417,
        0.08656051754951477,
        0.131410151720047,
        0.12584781646728516,
        -0.052534814924001694,
        0.06020035222172737,
        -0.010559716261923313,
        -0.004272171296179295,
        0.06313791126012802,
        -0.137477308511734,
        0.010156666859984398,
        0.021400589495897293,
        0.090004101395607,
        0.08429819345474243,
        -0.04981910064816475,
        -0.13344261050224304,
        -0.1503428965806961,
        0.020877543836832047,
        0.05715426802635193,
        0.12420490384101868,
        -0.010877377353608608,
        0.14863091707229614,
        0.13163094222545624,
        -0.015808289870619774,
        -0.11376667767763138,
        -0.011682095006108284,
        -0.12155120074748993,
        0.06350184231996536,
        -0.14062605798244476,
        0.13262814283370972,
        0.058756567537784576,
        -0.04010459780693054,
        0.12825362384319305,
        0.08919231593608856,
        -0.016529716551303864,
        0.0052559771575033665,
        0.0443866103887558,
        -0.08078247308731079,
        -0.1374744176864624
      ],
      [
        0.035541169345378876,
        -0.04345379397273064,
        0.20703311264514923,
        -0.01963888481259346,
        0.08009330928325653,
        -0.09013941138982773,
        -0.10026704519987106,
        -0.11475647985935211,
        0.0030198104213923216,
        0.020886564627289772,
        0.12232150137424469,
        0.11181657761335373,
        0.06797005981206894,
        0.12572024762630463,
        0.031965576112270355,
        0.11859676986932755,
        0.09992767125368118,
        0.04964985325932503,
        -0.06382348388433456,
        -0.02967970259487629,
        0.0044134221971035,
        -0.0046543884091079235,
        -0.11295531690120697,
        0.0574694387614727,
        0.03748922795057297,
        0.11906389147043228,
        0.007763114757835865,
        -0.01243282575160265,
        -0.08218559622764587,
        -0.071797214448452,
        0.0504583977162838,
        -0.043633174151182175,
        -0.0720726028084755,
        0.10755506902933121,
        -0.06372785568237305,
        -0.05826547369360924,
        0.13697950541973114,
        -0.08269227296113968,
        -0.05842552334070206,
        0.04803909361362457,
        -0.06664976477622986,
        0.15280331671237946
      ],
      [
        0.07534711062908173,
        0.1000920832157135,
        0.1417512595653534,
        0.06366857141256332,
        0.02189229056239128,
        0.06317944079637527,
        -0.0657053291797638,
        0.10950949788093567,
        0.151361346244812,
        0.06816892325878143,
        -0.06134922057390213,
        -0.049204617738723755,
        0.10925543308258057,
        -0.012554964981973171,
        0.11025803536176682,
        0.11904209852218628,
        0.1358555257320404,
        -0.00654573692008853,
        -0.08619211614131927,
        -0.09785519540309906,
        -0.05280189588665962,
        -0.0019203562987968326,
        -0.07262307405471802,
        0.08561922609806061,
        0.06514907628297806,
        -0.00661475257948041,
        0.09904597699642181,
        -0.05493585020303726,
        0.13044853508472443,
        0.08083758503198624,
        -0.035960543900728226,
        -0.05879539996385574,
        -0.07022055983543396,
        -0.08168406039476395,
        0.15131542086601257,
        0.1462101936340332,
        0.05140889063477516,
        -0.03784072399139404,
        0.09770261496305466,
        0.10940707474946976,
        -0.13348771631717682,
        0.08594616502523422
      ],
      [
        -0.10763686895370483,
        -0.15176120400428772,
        -0.13008253276348114,
        -0.08951102197170258,
        0.1103455200791359,
        0.11348919570446014,
        -0.07078210264444351,
        -0.15981291234493256,
        0.03150968253612518,
        0.0948496088385582,
        0.1062433123588562,
        -0.02991677075624466,
        -0.03052402473986149,
        0.14225172996520996,
        0.10137785226106644,
        -0.11897087097167969,
        -0.08897408843040466,
        0.09901691228151321,
        -0.08643507212400436,
        -0.1305360496044159,
        0.09222141653299332,
        -0.051247790455818176,
        0.007387832272797823,
        0.083064503967762,
        -0.1539522260427475,
        0.005527349654585123,
        -0.08159414678812027,
        0.12024777382612228,
        0.1009153202176094,
        -0.047378845512866974,
        -0.11615864187479019,
        -0.0783887729048729,
        -0.04620596393942833,
        0.05980135127902031,
        0.11037050187587738,
        0.05786962807178497,
        0.1188700869679451,
        0.09668442606925964,
        -0.022412262856960297,
        0.07612814009189606,
        -0.019628694280982018,
        0.05248895287513733
      ],
      [
        -0.13823159039020538,
        -0.047381989657878876,
        -0.0669160783290863,
        -0.012895536608994007,
        0.13577397167682648,
        0.0963604673743248,
        0.08340726047754288,
        0.1542486697435379,
        0.11616277694702148,
        -0.026752473786473274,
        0.061438560485839844,
        -0.09401986747980118,
        -0.007666948717087507,
        0.14713124930858612,
        0.11072582751512527,
        0.0946590006351471,
        0.07216604053974152,
        -0.1155375987291336,
        0.09236422926187515,
        -0.09495824575424194,
        0.042885150760412216,
        0.06927873194217682,
        -0.059465229511260986,
        -0.029018940404057503,
        0.13880634307861328,
        0.10448247194290161,
        -0.09717287123203278,
        0.0570824034512043,
        0.11264989525079727,
        -0.04773878678679466,
        0.006706319749355316,
        0.07107148319482803,
        -0.1255633533000946,
        -0.13368697464466095,
        -0.008243152871727943,
        0.06445224583148956,
        0.06126944348216057,
        0.0005857510841451585,
        -0.09081867337226868,
        -0.12358032166957855,
        0.12742508947849274,
        0.13236947357654572
      ],
      [
        0.17231085896492004,
        0.2005261480808258,
        -0.040344879031181335,
        0.07225023210048676,
        0.10716038197278976,
        0.14295943081378937,
        -0.14909641444683075,
        -0.04673546180129051,
        0.11569128185510635,
        0.10121023654937744,
        -0.12282735109329224,
        0.1519557535648346,
        0.15000717341899872,
        -0.08809882402420044,
        -0.11497406661510468,
        0.12169688194990158,
        -0.13481122255325317,
        0.07834253460168839,
        -0.12527884542942047,
        -0.12815827131271362,
        -0.08669377118349075,
        -0.07714229822158813,
        -0.09647099673748016,
        0.020974740386009216,
        -0.01048222929239273,
        0.019726091995835304,
        -0.08449199795722961,
        -0.09406190365552902,
        0.06407372653484344,
        -0.1313147395849228,
        0.04822283238172531,
        0.15399256348609924,
        -0.01127068605273962,
        0.0026482408866286278,
        0.1218140572309494,
        -0.1284283697605133,
        -0.1178828626871109,
        0.08748207986354828,
        -0.03782225772738457,
        0.11682932078838348,
        0.027377920225262642,
        -0.05202125757932663
      ],
      [
        0.1661088764667511,
        -0.00158518529497087,
        0.1707691252231598,
        0.08704407513141632,
        0.08901751786470413,
        -0.12659776210784912,
        0.10869842767715454,
        0.12331164628267288,
        -0.1276356428861618,
        0.003045114455744624,
        0.0017936740769073367,
        0.06031181290745735,
        -0.12377973645925522,
        -0.04875338450074196,
        0.05562576651573181,
        -0.06758155673742294,
        -0.12751588225364685,
        0.1066981852054596,
        -0.15322773158550262,
        0.11437422037124634,
        0.050152480602264404,
        -0.10817126929759979,
        -0.06372512876987457,
        0.00319652259349823,
        -0.1451321691274643,
        0.05476332828402519,
        -0.05125132203102112,
        0.08064144104719162,
        0.14172951877117157,
        0.07853495329618454,
        0.12384877353906631,
        -0.09218963235616684,
        -0.05002222955226898,
        -0.132951021194458,
        0.021737409755587578,
        -0.0726378783583641,
        -0.01717114821076393,
        0.02734733186662197,
        -0.1239967942237854,
        -0.022505944594740868,
        0.02366267703473568,
        0.011932700872421265
      ],
      [
        -0.13394436240196228,
        -0.06695099174976349,
        0.01463296078145504,
        -0.055460456758737564,
        0.11581985652446747,
        -0.10925464332103729,
        -0.07910588383674622,
        0.006398194935172796,
        -0.0401855893433094,
        -0.09791811555624008,
        -0.0019013548735529184,
        0.11246541887521744,
        0.1013508290052414,
        0.13739506900310516,
        -0.0664031133055687,
        -0.09359413385391235,
        0.14545443654060364,
        0.015294349752366543,
        -0.052001889795064926,
        -0.005563163664191961,
        0.03675871342420578,
        0.05562172085046768,
        0.06808412820100784,
        -0.04624320939183235,
        0.11584406346082687,
        0.0538027361035347,
        0.0515228807926178,
        -0.04603679105639458,
        0.04754630848765373,
        -0.14624761044979095,
        -0.07903169840574265,
        0.05672888085246086,
        -0.023403536528348923,
        0.08896166831254959,
        0.05338658019900322,
        -0.06002050265669823,
        -0.034421905875205994,
        0.12617835402488708,
        0.07158790528774261,
        0.12241038680076599,
        0.12783902883529663,
        -0.054662637412548065
      ],
      [
        -0.1510954648256302,
        0.12311290204524994,
        -0.04544346034526825,
        -0.0850248634815216,
        -0.1005311906337738,
        -0.10924684256315231,
        -0.085658960044384,
        -0.16086873412132263,
        -0.1420425921678543,
        0.08257607370615005,
        0.01700793392956257,
        -0.12428313493728638,
        -0.06326308101415634,
        -0.02503879740834236,
        -0.04860275238752365,
        -0.028070764616131783,
        0.10166601836681366,
        -0.1273304671049118,
        -0.12255601584911346,
        -0.014774597249925137,
        0.13945721089839935,
        -0.04303863272070885,
        0.06741858273744583,
        -0.042955875396728516,
        -0.1429574191570282,
        0.11536765098571777,
        0.07148243486881256,
        0.12741798162460327,
        0.11676593869924545,
        0.08587180078029633,
        0.07625022530555725,
        -0.028070708736777306,
        0.14990420639514923,
        -0.13786658644676208,
        0.12118513137102127,
        -0.07259275764226913,
        -0.11638296395540237,
        0.03431190922856331,
        -0.05226851627230644,
        0.14416588842868805,
        0.12452758103609085,
        -0.018222184851765633
      ],
      [
        0.07869698852300644,
        0.05532502010464668,
        -0.008334911428391933,
        0.0381927564740181,
        -0.1426389366388321,
        0.11522799730300903,
        0.05661454051733017,
        -0.18084634840488434,
        -0.12485936284065247,
        -0.10596846789121628,
        -0.03910129517316818,
        -0.12097823619842529,
        -0.0063353972509503365,
        0.09494352340698242,
        -0.1014392152428627,
        0.01201827172189951,
        0.12587258219718933,
        0.02538498118519783,
        0.05517918989062309,
        -0.1409200131893158,
        -0.02852451801300049,
        0.15112556517124176,
        0.018251929432153702,
        -0.03345520794391632,
        0.038022831082344055,
        -0.15114544332027435,
        -0.005986492149531841,
        0.02396184392273426,
        0.052931468933820724,
        0.004036484286189079,
        0.09360314905643463,
        -0.040515732020139694,
        -0.0037446755450218916,
        -0.13652551174163818,
        0.14333359897136688,
        0.06559915095567703,
        -0.0691826194524765,
        0.01107235811650753,
        -0.05045177415013313,
        0.07094226777553558,
        -0.10208706557750702,
        0.0993868038058281
      ],
      [
        0.1172439306974411,
        -0.09359544515609741,
        -0.13724443316459656,
        -0.07190202921628952,
        -0.05777614563703537,
        0.05212472751736641,
        -0.03517729043960571,
        -0.11887813359498978,
        0.04721638560295105,
        -0.08450517803430557,
        0.06414761394262314,
        -0.06280526518821716,
        0.07976842671632767,
        0.11114637553691864,
        0.06552331149578094,
        0.10783614218235016,
        -0.13265788555145264,
        0.1261981725692749,
        0.08521120250225067,
        0.042334698140621185,
        -0.09569709002971649,
        -0.10633861273527145,
        -0.13227657973766327,
        -0.07064613699913025,
        0.14774994552135468,
        -0.009814457036554813,
        -0.12324554473161697,
        0.1249774843454361,
        -0.02895904704928398,
        0.09205354750156403,
        0.14862920343875885,
        0.047598619014024734,
        -0.10245932638645172,
        -0.061482854187488556,
        -0.022650305181741714,
        0.06090063601732254,
        -0.05138860270380974,
        0.12802916765213013,
        0.05440197139978409,
        -0.1090012937784195,
        0.0047218590043485165,
        0.05751591920852661
      ],
      [
        -0.12048426270484924,
        0.011574055068194866,
        0.12421809136867523,
        0.14902415871620178,
        -0.048862773925065994,
        -0.023984652012586594,
        0.05540045350790024,
        -0.09704917669296265,
        -0.2019260972738266,
        0.05789463594555855,
        0.051733605563640594,
        0.043065689504146576,
        0.0032374500297009945,
        -0.11912932246923447,
        0.10811150074005127,
        -0.018871083855628967,
        0.043786678463220596,
        -0.06168626248836517,
        0.07476072013378143,
        -0.14321115612983704,
        -0.08161836862564087,
        -0.14438951015472412,
        -0.0652090460062027,
        -0.1363585740327835,
        0.08552355319261551,
        0.06217290461063385,
        0.07034169137477875,
        -0.14228828251361847,
        0.10352852195501328,
        0.04684034734964371,
        -0.07825243473052979,
        0.14379377663135529,
        0.047015443444252014,
        -0.04104764014482498,
        0.03489096462726593,
        -0.10690216720104218,
        -0.0034824449103325605,
        -0.023588785901665688,
        0.05456510931253433,
        -0.0605914443731308,
        0.09359428286552429,
        -0.11256294697523117
      ],
      [
        -0.14714230597019196,
        -0.09358033537864685,
        0.04230254516005516,
        0.0014764812076464295,
        -0.0457456074655056,
        -0.0437481589615345,
        0.05355215072631836,
        -0.15334568917751312,
        0.061001669615507126,
        -0.13075745105743408,
        0.12425102293491364,
        0.05147433653473854,
        0.1351829320192337,
        0.06737564504146576,
        -0.04244999215006828,
        -0.011035624891519547,
        0.06487439572811127,
        0.025499854236841202,
        -0.09914959222078323,
        -0.08607672899961472,
        -0.07471780478954315,
        -0.07839944213628769,
        0.05601992458105087,
        0.011470909230411053,
        -0.1388016790151596,
        -0.1461712270975113,
        0.039092279970645905,
        0.15264686942100525,
        -0.148507758975029,
        -0.053217463195323944,
        0.10395266115665436,
        0.14771656692028046,
        0.02832479029893875,
        -0.01104743406176567,
        -0.1483578234910965,
        0.030074557289481163,
        -0.005635619163513184,
        -0.013279354199767113,
        0.1386195421218872,
        0.11527330428361893,
        0.03316422551870346,
        -0.024646593257784843
      ],
      [
        0.19736839830875397,
        0.16344374418258667,
        -0.02168748714029789,
        0.07737375050783157,
        -0.14650070667266846,
        -0.14109988510608673,
        0.06652582436800003,
        0.1549311876296997,
        -0.03640786185860634,
        -0.05237199738621712,
        -0.07502026855945587,
        -0.12384849786758423,
        0.12985645234584808,
        -0.04847917705774307,
        -0.006443795282393694,
        -0.10989882797002792,
        0.05149545520544052,
        0.01875470206141472,
        -0.13790957629680634,
        0.06991907954216003,
        -0.06213328242301941,
        0.0491483099758625,
        0.007724872790277004,
        0.05740547925233841,
        -0.08291977643966675,
        -0.14541956782341003,
        0.0048409076407551765,
        0.14186334609985352,
        -0.059492986649274826,
        0.1534055769443512,
        -0.145876944065094,
        0.08797162771224976,
        -0.09282460063695908,
        0.14759281277656555,
        -0.03747423738241196,
        0.1394607126712799,
        -0.10921183973550797,
        0.13039100170135498,
        -0.06488094478845596,
        -0.09187166392803192,
        -0.09578884392976761,
        -0.14755064249038696
      ],
      [
        -0.11027619242668152,
        0.0635840892791748,
        -0.07584916055202484,
        0.11094023287296295,
        0.07386132329702377,
        -0.07096880674362183,
        -0.00941020343452692,
        -0.05981743708252907,
        -0.06448141485452652,
        -0.11857249587774277,
        -0.14694379270076752,
        -0.10189257562160492,
        -0.05289006233215332,
        0.08913221955299377,
        -0.10254351794719696,
        0.03593181073665619,
        0.07041656970977783,
        -0.07607906311750412,
        -0.03290598839521408,
        0.13372403383255005,
        -0.001791374757885933,
        0.1120259016752243,
        -0.03369652479887009,
        -0.00747351348400116,
        0.14928604662418365,
        -0.12277595698833466,
        0.12098715454339981,
        -0.0069869630970060825,
        0.07421420514583588,
        0.0403284952044487,
        -0.1453363448381424,
        0.10831032693386078,
        0.05446445569396019,
        0.15071068704128265,
        -0.0038487508427351713,
        -0.12568846344947815,
        -0.08228924870491028,
        0.07029683887958527,
        0.03216051682829857,
        -0.07860906422138214,
        -0.0758749395608902,
        0.009350219741463661
      ],
      [
        -0.07472575455904007,
        -0.07562308758497238,
        -0.12361688911914825,
        0.006503650452941656,
        -0.11399263143539429,
        -0.032068271189928055,
        -0.05738622322678566,
        -0.11958148330450058,
        -0.05279852822422981,
        -0.16505472362041473,
        -0.05705133453011513,
        -0.11671750247478485,
        0.00503907073289156,
        -0.045894231647253036,
        0.012323617935180664,
        -0.06029145047068596,
        -0.14451728761196136,
        0.11481910943984985,
        0.10356231033802032,
        -0.0868232473731041,
        -0.0445089153945446,
        -0.1070241928100586,
        -0.08082813024520874,
        -0.04712836816906929,
        -0.15173502266407013,
        -0.0025690163020044565,
        0.02564881183207035,
        0.04256758838891983,
        -0.08196041733026505,
        0.06039904057979584,
        0.09736253321170807,
        0.04317528381943703,
        -0.02578331157565117,
        -0.11369164288043976,
        -0.04896193742752075,
        0.14181102812290192,
        0.11028899252414703,
        -0.06349332630634308,
        -0.03802330791950226,
        0.10994406044483185,
        -0.1117824912071228,
        -0.061019208282232285
      ],
      [
        0.089594766497612,
        -0.10900624096393585,
        -0.07785654813051224,
        -0.04820775240659714,
        0.11424583196640015,
        -0.11684911698102951,
        0.04008156806230545,
        0.006688679568469524,
        -0.11540576070547104,
        0.08021226525306702,
        -0.08695664256811142,
        0.12119120359420776,
        0.13032516837120056,
        -0.05974018946290016,
        -0.0888320803642273,
        0.047736138105392456,
        0.15373024344444275,
        -0.06416299194097519,
        -0.005973285064101219,
        0.03165872022509575,
        0.07914182543754578,
        -0.061913855373859406,
        -0.05882639437913895,
        0.0700424313545227,
        -0.08893463015556335,
        0.008391209878027439,
        -0.10134734958410263,
        0.020291609689593315,
        -0.004969318863004446,
        -0.10861479490995407,
        -0.07404455542564392,
        0.06442805379629135,
        0.03398612514138222,
        -0.12512876093387604,
        0.0474473275244236,
        -0.08219760656356812,
        -0.0569901168346405,
        0.0813765600323677,
        -0.1297091394662857,
        0.0028049058746546507,
        -0.036411408334970474,
        0.12726370990276337
      ],
      [
        0.037592560052871704,
        -0.10138662159442902,
        -0.0782976895570755,
        -0.040281035006046295,
        0.018421487882733345,
        -0.12519831955432892,
        0.11193093657493591,
        -0.07361748069524765,
        0.04203079640865326,
        -0.16309574246406555,
        0.14329738914966583,
        -0.07700139284133911,
        -0.056605562567710876,
        -0.08874612301588058,
        -0.12077970057725906,
        -0.13967545330524445,
        0.10074511915445328,
        0.07096903026103973,
        0.12516555190086365,
        0.035671789199113846,
        0.09839131683111191,
        -0.07723960280418396,
        -0.049672093242406845,
        0.1336805522441864,
        0.13131189346313477,
        0.0011832377640530467,
        0.09526736289262772,
        -0.14378607273101807,
        0.06513824313879013,
        0.11626192927360535,
        0.05944887548685074,
        -0.007413510698825121,
        -0.0467727854847908,
        -0.03252408280968666,
        -0.08546662330627441,
        0.12118943780660629,
        0.11273730546236038,
        0.022186527028679848,
        0.00943810772150755,
        0.1385263353586197,
        0.14041605591773987,
        0.129184290766716
      ],
      [
        0.05978125333786011,
        0.05042913556098938,
        0.18570348620414734,
        0.0327826552093029,
        0.08421565592288971,
        0.09699709713459015,
        -0.08444444835186005,
        -0.04758699610829353,
        -0.14633981883525848,
        0.03744195029139519,
        0.0006933214608579874,
        0.1474669873714447,
        -0.1171392872929573,
        0.1077786535024643,
        -0.04291049763560295,
        -0.11211798340082169,
        -0.0017927727894857526,
        0.0886397659778595,
        -0.04382747411727905,
        0.10230064392089844,
        -0.14859752357006073,
        -0.04657280072569847,
        -0.13902324438095093,
        0.048513080924749374,
        0.15328916907310486,
        0.1395629197359085,
        -0.03746693208813667,
        -0.05641608312726021,
        0.027791831642389297,
        -0.10124500840902328,
        -0.05514245480298996,
        -0.045224547386169434,
        -0.13651849329471588,
        -0.10440181195735931,
        -0.034073811024427414,
        0.14742812514305115,
        -0.08821185678243637,
        -0.14807996153831482,
        0.08627142012119293,
        -0.026617128401994705,
        0.15151658654212952,
        -0.043693657964468
      ],
      [
        0.14380155503749847,
        -0.07314670085906982,
        -0.13249100744724274,
        -0.006885591894388199,
        -0.09483382105827332,
        0.0456908643245697,
        -0.026672808453440666,
        -0.008845716714859009,
        0.031187878921628,
        -0.10453412681818008,
        -0.03687233477830887,
        0.053193349391222,
        0.10712515562772751,
        -0.10394717752933502,
        0.06038110703229904,
        0.14695143699645996,
        0.14751745760440826,
        -0.0436658076941967,
        0.10172566771507263,
        -0.08319499343633652,
        0.01628812588751316,
        0.1279558539390564,
        0.0834432989358902,
        -0.11453868448734283,
        0.0611913800239563,
        0.14103853702545166,
        -0.10134565830230713,
        -0.09413637965917587,
        -0.10500507801771164,
        -0.12707184255123138,
        -0.12476863712072372,
        0.13022728264331818,
        -0.09976348280906677,
        0.14339962601661682,
        0.043849896639585495,
        0.09338611364364624,
        -0.04884294420480728,
        0.013697182759642601,
        -0.07421188801527023,
        -0.05059466138482094,
        -0.020330844447016716,
        0.08920620381832123
      ],
      [
        -0.09772549569606781,
        0.060821302235126495,
        0.03548896685242653,
        0.012926089577376842,
        -0.014003816992044449,
        0.0022161013912409544,
        0.13280345499515533,
        0.02239813655614853,
        -0.0946674793958664,
        0.012742992490530014,
        -0.0060869622975587845,
        -0.00996187049895525,
        0.09937632083892822,
        0.009362341836094856,
        -0.01683191768825054,
        0.0751272663474083,
        -0.10774834454059601,
        0.11336630582809448,
        0.053763337433338165,
        0.12109308689832687,
        -0.019255656749010086,
        -0.05130920931696892,
        -0.1088867336511612,
        -0.022779010236263275,
        -0.0538359209895134,
        -0.053648941218853,
        -0.10862164944410324,
        -0.05037122592329979,
        -0.0602426677942276,
        0.06706730276346207,
        0.022777041420340538,
        0.055709682404994965,
        -0.04105597361922264,
        0.08944936096668243,
        -0.06569864600896835,
        0.15316221117973328,
        -0.017415223643183708,
        0.06537964940071106,
        -0.047561995685100555,
        -0.03264591097831726,
        -0.13205546140670776,
        -0.11429601162672043
      ],
      [
        0.17287184298038483,
        0.07519146054983139,
        0.21289926767349243,
        -0.018040964379906654,
        -0.10522617399692535,
        -0.0024076788686215878,
        -0.11721477657556534,
        0.10528743267059326,
        0.09661401063203812,
        -0.026258273050189018,
        -0.08723317086696625,
        0.09394634515047073,
        -0.0075634801760315895,
        0.12542854249477386,
        0.07538267225027084,
        0.03408424183726311,
        0.03560589998960495,
        -0.13774514198303223,
        0.11102719604969025,
        -0.10464537143707275,
        0.1283813863992691,
        0.11522147059440613,
        0.14262913167476654,
        0.04085391014814377,
        -0.07518702745437622,
        -0.11964644491672516,
        -0.08662912994623184,
        0.13122113049030304,
        0.028976431116461754,
        -0.022656651213765144,
        -0.08443403989076614,
        -0.12879550457000732,
        -0.1471826434135437,
        -0.0718778595328331,
        0.005108288489282131,
        -0.054541125893592834,
        -0.0943622812628746,
        -0.055980026721954346,
        0.04354887455701828,
        -0.13079151511192322,
        0.1344461739063263,
        0.0895867869257927
      ],
      [
        -0.08610878884792328,
        -0.0765339732170105,
        -0.01546069048345089,
        -0.0005214258562773466,
        -0.06933087855577469,
        0.05852612107992172,
        -0.09599407017230988,
        0.06744032353162766,
        0.0523872897028923,
        0.13645674288272858,
        -0.12157033383846283,
        0.07797285914421082,
        0.08068325370550156,
        0.07394805550575256,
        -0.10706458985805511,
        0.13626408576965332,
        0.016493387520313263,
        -0.07047896832227707,
        -0.006921276915818453,
        -0.14765715599060059,
        -0.04120912402868271,
        0.06429354101419449,
        -0.032517094165086746,
        -0.0158890038728714,
        -0.1474020630121231,
        0.056860215961933136,
        -0.0309876911342144,
        0.126591756939888,
        -0.00210514641366899,
        0.005617077462375164,
        0.026247089728713036,
        -0.09823867678642273,
        -0.1495358794927597,
        -0.08330649882555008,
        0.10206490010023117,
        0.006310178432613611,
        0.016420675441622734,
        -0.04272393882274628,
        0.038902249187231064,
        0.09058961272239685,
        -0.14336906373500824,
        -0.06987239420413971
      ],
      [
        -0.17160309851169586,
        -0.04921964183449745,
        0.06412971764802933,
        -0.020225610584020615,
        0.08921948820352554,
        0.0847858116030693,
        -0.14389333128929138,
        0.04614073783159256,
        -0.1092156171798706,
        -0.14407379925251007,
        0.07898322492837906,
        0.07405728101730347,
        -0.12959922850131989,
        0.0058885421603918076,
        -0.0494200699031353,
        0.11248063296079636,
        -0.024371283128857613,
        -0.07175189256668091,
        -0.03842853754758835,
        0.07105053216218948,
        0.03853023797273636,
        -0.11233658343553543,
        -0.13266147673130035,
        0.056060776114463806,
        0.07532991468906403,
        -0.025670994073152542,
        -0.010966130532324314,
        -0.017171204090118408,
        0.04128347709774971,
        0.056498508900403976,
        0.034295279532670975,
        0.04052111878991127,
        -0.09385958313941956,
        -0.015382661484181881,
        -0.09985462576150894,
        -0.13263143599033356,
        0.036182157695293427,
        0.03904658928513527,
        -0.10975660383701324,
        0.09220033138990402,
        -0.1299973875284195,
        0.03527643531560898
      ],
      [
        0.04610687121748924,
        -0.019327320158481598,
        -0.09748208522796631,
        -0.0775098204612732,
        -0.026508454233407974,
        0.030071375891566277,
        0.04435949772596359,
        -0.15452386438846588,
        -0.039479341357946396,
        -0.12104634940624237,
        -0.03206615522503853,
        0.08267093449831009,
        0.09083732962608337,
        0.1320672333240509,
        -0.07694652676582336,
        0.06655383855104446,
        0.12705585360527039,
        -0.028684640303254128,
        0.047406140714883804,
        -0.07456117868423462,
        -0.0020573760848492384,
        -0.06445566564798355,
        -0.035819679498672485,
        0.026219533756375313,
        -0.01995883695781231,
        -0.07941503822803497,
        0.050666142255067825,
        0.048152659088373184,
        0.012295511551201344,
        0.15213638544082642,
        0.11576060950756073,
        -0.11262278258800507,
        0.10530669242143631,
        0.09411412477493286,
        -0.051522400230169296,
        0.07553278654813766,
        -0.1320859044790268,
        0.03325873613357544,
        0.04802101105451584,
        -0.08179352432489395,
        0.04702434688806534,
        0.014465167187154293
      ],
      [
        0.11571848392486572,
        -0.1413382887840271,
        -0.11464875936508179,
        -0.11682284623384476,
        5.6691522331675515e-05,
        -0.09849505871534348,
        -0.07219468057155609,
        -0.18741996586322784,
        -0.06930481642484665,
        0.02043341100215912,
        0.07507637143135071,
        0.11742328107357025,
        0.0801144614815712,
        0.0602959580719471,
        0.01607927493751049,
        0.14400459825992584,
        0.024142660200595856,
        0.044981520622968674,
        -0.011229501105844975,
        0.02921750769019127,
        0.11612518876791,
        0.04825592413544655,
        -0.028882471844553947,
        -0.025064347311854362,
        -0.11366427689790726,
        0.10615213215351105,
        -0.10218549519777298,
        -0.05154486000537872,
        -0.06808128952980042,
        -0.08493449538946152,
        -0.12286713719367981,
        0.025469742715358734,
        -0.04666530713438988,
        0.07772970199584961,
        -0.09858211874961853,
        0.04854942485690117,
        0.11386296898126602,
        0.11807228624820709,
        -0.05496162176132202,
        -0.09202827513217926,
        -0.13908249139785767,
        -0.07580813020467758
      ],
      [
        -0.1558167189359665,
        0.09308546036481857,
        0.06419620662927628,
        0.047137435525655746,
        0.11520132422447205,
        0.024523938074707985,
        -0.09478835016489029,
        -0.09622214734554291,
        -0.07447627186775208,
        -0.1698453277349472,
        -0.08071601390838623,
        0.14717420935630798,
        0.11053722351789474,
        0.13992653787136078,
        -0.1171390637755394,
        -0.1519474983215332,
        -0.07357145100831985,
        0.05892818793654442,
        0.09032296389341354,
        -0.08500351011753082,
        0.016673635691404343,
        -0.06864423304796219,
        0.12350910156965256,
        -0.10937932133674622,
        0.07065499573945999,
        0.14853490889072418,
        0.12132305651903152,
        0.11407529562711716,
        0.08439160138368607,
        0.09750395268201828,
        -0.0028481511399149895,
        0.15107151865959167,
        0.03134165704250336,
        0.007549353409558535,
        -0.09041449427604675,
        0.045023515820503235,
        -0.01817583106458187,
        -0.09193713217973709,
        0.03633229434490204,
        0.061227116733789444,
        -0.09749846905469894,
        -0.09351345151662827
      ],
      [
        -0.12469346076250076,
        -0.013523539528250694,
        0.1468677967786789,
        0.0373234748840332,
        -0.14164625108242035,
        0.0031707887537777424,
        0.09559397399425507,
        -0.0041458019986748695,
        0.05164709687232971,
        -0.051056157797575,
        0.0025288795586675406,
        -0.02256201207637787,
        0.1529015749692917,
        0.07248781621456146,
        0.04666977748274803,
        -0.01762920431792736,
        -0.07363253831863403,
        -0.14134708046913147,
        0.04834471642971039,
        0.05740811303257942,
        -0.09429723769426346,
        0.001862616278231144,
        -0.09929461032152176,
        0.01667201705276966,
        -0.10840746760368347,
        -0.01554068736732006,
        -0.04860887676477432,
        0.013058364391326904,
        0.10312693566083908,
        -0.04738331586122513,
        0.0007804189226590097,
        -0.10137076675891876,
        -0.12720142304897308,
        -0.1527901440858841,
        -0.0006244161049835384,
        0.07121321558952332,
        -0.04599549248814583,
        0.06504666060209274,
        0.10213659703731537,
        -0.07981566339731216,
        -0.030173372477293015,
        0.08726318925619125
      ],
      [
        -0.06673881411552429,
        -0.10974738746881485,
        -0.1487896591424942,
        0.08744382113218307,
        0.11836904287338257,
        -0.02009405381977558,
        -0.04114178195595741,
        -0.14176109433174133,
        -0.14935526251792908,
        -0.0896289125084877,
        -0.1398899406194687,
        0.012651498429477215,
        0.08420276641845703,
        -0.1368284970521927,
        -0.0986473336815834,
        -0.13838326930999756,
        0.015982503071427345,
        0.14259347319602966,
        -0.1413438618183136,
        0.02900545671582222,
        -0.032730285078287125,
        -0.14713318645954132,
        0.09317056834697723,
        0.019410794600844383,
        0.13037630915641785,
        0.07153704762458801,
        -0.11607614904642105,
        0.13029655814170837,
        0.13703297078609467,
        0.06806221604347229,
        0.1357324868440628,
        -0.060430385172367096,
        -0.07590757310390472,
        -0.08549191802740097,
        0.0013681934215128422,
        0.003743498120456934,
        0.0471702516078949,
        -0.14346958696842194,
        -0.05191657692193985,
        0.08234933018684387,
        -0.13477952778339386,
        -0.012042331509292126
      ],
      [
        -0.011229556985199451,
        -0.032654207199811935,
        -0.11472424864768982,
        0.11182893812656403,
        -0.07167977094650269,
        -0.09333142638206482,
        0.0803663358092308,
        0.11351888626813889,
        -0.12375655770301819,
        0.09011932462453842,
        -0.08961454033851624,
        0.1075325757265091,
        0.08807055652141571,
        0.12066194415092468,
        0.14017580449581146,
        -0.08126448094844818,
        0.015607422217726707,
        0.01644596830010414,
        0.035669323056936264,
        0.15095259249210358,
        -0.09326926618814468,
        0.004665112588554621,
        -0.0920352041721344,
        -0.055109694600105286,
        -0.11757904291152954,
        -0.15045155584812164,
        0.13082128763198853,
        0.04481135308742523,
        0.0706477165222168,
        -0.06021592393517494,
        0.13435064256191254,
        0.07492632418870926,
        0.044195473194122314,
        -0.07664647698402405,
        0.12115807831287384,
        0.03478127717971802,
        0.1078970804810524,
        -0.04540402069687843,
        0.13441012799739838,
        -0.07182291150093079,
        0.03412330895662308,
        0.1155702993273735
      ],
      [
        -0.07728943228721619,
        -0.13865353167057037,
        -0.016063787043094635,
        0.13702572882175446,
        -0.11099611222743988,
        -0.05989183112978935,
        0.09449444711208344,
        -0.19388365745544434,
        -0.00011982969590462744,
        -0.12020441889762878,
        -0.003894332330673933,
        -0.07809499651193619,
        -0.01767057366669178,
        0.10799219459295273,
        -0.07111572474241257,
        0.14093449711799622,
        -0.10104206204414368,
        -0.11176900565624237,
        -0.02018076553940773,
        0.04526288062334061,
        -0.02968652732670307,
        -0.04247554391622543,
        -0.03199112415313721,
        -0.062086321413517,
        -0.14618629217147827,
        -0.15087881684303284,
        -0.09051068127155304,
        -0.0019770110957324505,
        0.12030956149101257,
        -0.11413152515888214,
        -0.0525045171380043,
        -0.06546515226364136,
        -0.10152662545442581,
        -0.09099259227514267,
        0.15129539370536804,
        -0.01757069304585457,
        0.09890937805175781,
        -0.09966865926980972,
        -0.14723870158195496,
        0.10121827572584152,
        -0.08151499181985855,
        0.03713938593864441
      ]
    ],
    "layers.0.bias": [
      0.021449295803904533,
      -0.05730537325143814,
      0.14407210052013397,
      -0.03422999754548073,
      -0.1353376805782318,
      0.08371222764253616,
      0.09010700136423111,
      -0.14343900978565216,
      -0.041282955557107925,
      -0.03469029814004898,
      0.15923480689525604,
      -0.040056128054857254,
      -0.13299709558486938,
      -0.12122055888175964,
      0.003041252726688981,
      0.07039937376976013,
      -0.14246152341365814,
      0.06769315153360367,
      -0.0609004907310009,
      0.09533681720495224,
      0.03197719156742096,
      -0.002172437496483326,
      -0.05264778807759285,
      -0.13629721105098724,
      -0.030240196734666824,
      -0.145476832985878,
      -0.12739495933055878,
      0.008097841404378414,
      0.029973624274134636,
      -0.14523935317993164,
      0.06175876408815384,
      -0.06986017525196075,
      -0.11065463721752167,
      -0.016524724662303925,
      0.12655845284461975,
      0.1178802028298378,
      0.12889240682125092,
      0.2403988242149353,
      0.023022504523396492,
      -0.0021706928964704275,
      0.02980278991162777,
      0.05310860648751259,
      0.0370720773935318,
      0.0674654170870781,
      -0.015515669248998165,
      0.16210858523845673,
      0.05738811567425728,
      0.09052117168903351,
      -0.055012378841638565,
      -0.029405627399683,
      0.11195258051156998,
      0.05013197287917137,
      -0.09689213335514069,
      -0.14678238332271576,
      -0.014581686817109585,
      -0.05122067779302597,
      0.12087643146514893,
      -0.016865471377968788,
      0.12680213153362274,
      -0.004727157298475504,
      -0.04768209531903267,
      0.11777964979410172,
      -0.08715005964040756,
      0.04476962238550186
    ],
    "layers.3.weight": [
      [
        -0.09922923147678375,
        0.16489392518997192,
        -0.04932504892349243,
        0.08756793290376663,
        -0.04302076995372772,
        -0.1527656763792038,
        0.05233578756451607,
        0.0001474916934967041,
        0.11003103852272034,
        0.09119933843612671,
        -0.20063689351081848,
        0.008132949471473694,
        0.07731279730796814,
        0.09489519894123077,
        0.0866846963763237,
        -0.15811999142169952,
        -0.11449450254440308,
        -0.010586812160909176,
        -0.025113478302955627,
        -0.07338570803403854,
        -0.06999333202838898,
        0.03514526039361954,
        0.01969502866268158,
        -0.122290700674057,
        0.1319928765296936,
        -0.08540041744709015,
        -0.06619665026664734,
        0.05996374040842056,
        0.1252763271331787,
        0.0206822007894516,
        0.0533236600458622,
        0.121903195977211,
        0.06342907249927521,
        0.051531560719013214,
        0.07640399783849716,
        -0.09029706567525864,
        0.03574778512120247,
        -0.028504429385066032,
        -0.06960538774728775,
        -0.05845600366592407,
        -0.02214774116873741,
        0.022682299837470055,
        0.07220456749200821,
        0.08885280042886734,
        -0.04209020733833313,
        0.10231701284646988,
        0.04855050891637802,
        0.15442053973674774,
        -0.045660365372896194,
        0.0777021050453186,
        0.01599361002445221,
        0.02766634337604046,
        -0.03316226601600647,
        0.1242474913597107,
        -0.08190640807151794,
        0.0655529648065567,
        -0.032836996018886566,
        0.0881802961230278,
        0.1680263876914978,
        -0.007340724114328623,
        0.08587132394313812,
        0.05734401196241379,
        -0.043736532330513,
        0.03807888552546501
      ],
      [
        -0.03551182150840759,
        0.08442376554012299,
        -0.05234387516975403,
        0.04053372144699097,
        0.10137822479009628,
        -0.04642798379063606,
        -0.005396339576691389,
        -0.0651044100522995,
        0.07183338701725006,
        0.05023297667503357,
        -0.02219834178686142,
        0.044039830565452576,
        0.0911588966846466,
        -0.028399214148521423,
        0.07489748299121857,
        -0.09433752298355103,
        -0.028961285948753357,
        -0.03449447453022003,
        0.12491680681705475,
        -0.03602684661746025,
        -0.020792244002223015,
        -0.006927721202373505,
        -0.06764884293079376,
        -0.08569522202014923,
        -0.03666268661618233,
        0.12492713332176208,
        0.014785125851631165,
        -0.024713460355997086,
        0.07269785553216934,
        -0.025465980172157288,
        -0.05998501926660538,
        0.037211596965789795,
        -0.08302322030067444,
        -0.028328511863946915,
        -0.04639434441924095,
        -0.10060156881809235,
        0.1363457590341568,
        -0.0609549917280674,
        -0.13882003724575043,
        -0.00951110664755106,
        0.021675750613212585,
        0.009207401424646378,
        -0.06176559999585152,
        -0.021006526425480843,
        0.03337191417813301,
        -0.04300995543599129,
        -0.12146171182394028,
        -0.018273603171110153,
        0.13717812299728394,
        0.007055565714836121,
        0.11735428869724274,
        -0.06409881263971329,
        -0.06452509760856628,
        -0.07978811860084534,
        0.001643946161493659,
        -0.03725440800189972,
        0.08550124615430832,
        -0.013322780840098858,
        -0.07074689865112305,
        0.10934600234031677,
        -0.10853354632854462,
        0.10729470103979111,
        -0.06933775544166565,
        -0.021507367491722107
      ],
      [
        0.21044760942459106,
        0.05027766898274422,
        -0.19589872658252716,
        -0.053788334131240845,
        0.11956118047237396,
        0.05701104551553726,
        -0.29286131262779236,
        0.0235682874917984,
        -0.05968446284532547,
        -0.07163105905056,
        -0.09347452968358994,
        -0.08824022114276886,
        0.08384901285171509,
        -0.10629551112651825,
        -0.2512458860874176,
        0.05775527283549309,
        0.024870559573173523,
        0.01323514711111784,
        0.005096212029457092,
        0.11202696710824966,
        0.17519113421440125,
        0.03725683316588402,
        0.03489089012145996,
        -0.11345899105072021,
        -0.12177586555480957,
        0.03378450870513916,
        0.060619696974754333,
        -0.09016291797161102,
        0.13534514605998993,
        0.021794751286506653,
        -0.07159017026424408,
        0.01637318730354309,
        0.09486289322376251,
        0.0975990891456604,
        0.011907081119716167,
        0.11220260709524155,
        -0.22086824476718903,
        -0.27117395401000977,
        0.14248865842819214,
        0.24163082242012024,
        -0.1038338914513588,
        -0.07693570107221603,
        0.054623477160930634,
        -0.25785431265830994,
        0.13083557784557343,
        -0.16629385948181152,
        0.17812325060367584,
        -0.08166121691465378,
        -0.0826396718621254,
        -0.008915066719055176,
        -0.16114282608032227,
        0.1570264846086502,
        0.035741329193115234,
        0.03210361301898956,
        0.15124760568141937,
        -0.029623135924339294,
        0.017758330330252647,
        -0.046880073845386505,
        -0.2110418975353241,
        0.004435837734490633,
        -0.02514377236366272,
        -0.18504489958286285,
        0.020299583673477173,
        -0.27271345257759094
      ],
      [
        -0.11699586361646652,
        -0.027061719447374344,
        0.11129752546548843,
        0.10109288990497589,
        -0.024237381294369698,
        0.07708579301834106,
        -0.0625954195857048,
        -0.08624139428138733,
        0.05867942050099373,
        0.10464358329772949,
        0.002069499809294939,
        -0.11054646968841553,
        0.0740276426076889,
        0.03622794151306152,
        0.0921015739440918,
        -0.046015795320272446,
        0.0922432690858841,
        -0.08979450911283493,
        -0.10920001566410065,
        -0.11254867166280746,
        0.07672624289989471,
        -0.09849552810192108,
        -0.007050350308418274,
        0.11409339308738708,
        0.12824028730392456,
        -0.06050118803977966,
        0.08679768443107605,
        -0.0773649662733078,
        0.0009156683227047324,
        -0.07768651843070984,
        0.03357754647731781,
        -0.11018051207065582,
        -0.052801236510276794,
        0.0696292445063591,
        0.09913436323404312,
        -0.14359167218208313,
        0.00010020815534517169,
        -0.06622496247291565,
        -0.08708272874355316,
        -0.1511482447385788,
        -0.002869818825274706,
        0.13900132477283478,
        -0.035160284489393234,
        0.007398376241326332,
        -0.02284943498671055,
        -0.08083728700876236,
        -0.13137145340442657,
        0.07171901315450668,
        0.12027297168970108,
        0.027873948216438293,
        0.12529611587524414,
        -0.010812858119606972,
        -0.07152120769023895,
        -0.03232823312282562,
        -0.12294650822877884,
        0.019339963793754578,
        -0.09849882870912552,
        -0.077620729804039,
        0.1042054146528244,
        0.02357856184244156,
        0.11873488128185272,
        0.07426478713750839,
        0.06577950716018677,
        0.10141097009181976
      ],
      [
        -0.06463316828012466,
        -0.014325830154120922,
        0.08052700757980347,
        -0.051497362554073334,
        -0.029716534540057182,
        -0.08943960815668106,
        -0.029200470075011253,
        -0.06947092711925507,
        -0.021221281960606575,
        0.007253825664520264,
        -0.14505167305469513,
        0.028152048587799072,
        0.03067006915807724,
        0.11759451031684875,
        0.0809556320309639,
        -0.07025451958179474,
        0.0884130448102951,
        0.041106875985860825,
        0.040988996624946594,
        -0.024008970707654953,
        -0.1146489754319191,
        0.0024155625142157078,
        -0.06793247163295746,
        0.09991729259490967,
        0.15875105559825897,
        -0.02044115960597992,
        0.016837239265441895,
        0.09980180114507675,
        -0.06425829976797104,
        -0.0694483071565628,
        0.03685379400849342,
        0.0799376368522644,
        0.09337116777896881,
        -0.08615869283676147,
        0.10408524423837662,
        -0.08035355806350708,
        -0.0707087516784668,
        -0.10045785456895828,
        0.019606903195381165,
        -0.1088225319981575,
        0.0916149690747261,
        0.011288884095847607,
        -0.11980374902486801,
        0.1425405591726303,
        0.04507002606987953,
        0.10801282525062561,
        -0.007135531399399042,
        0.008722622878849506,
        -0.015021052211523056,
        0.026115164160728455,
        -0.0021185034420341253,
        0.08344766497612,
        -0.04747095704078674,
        0.06945973634719849,
        -0.028230708092451096,
        0.05412442982196808,
        -0.03622794896364212,
        -0.013578190468251705,
        0.10279815644025803,
        0.18233853578567505,
        -0.1216314435005188,
        -0.0480065681040287,
        -0.03746798634529114,
        -0.0027496858965605497
      ],
      [
        -0.12182652205228806,
        0.05218736454844475,
        -0.07622906565666199,
        -0.015833932906389236,
        -0.09700734913349152,
        -0.049752045422792435,
        0.04006100445985794,
        0.06422631442546844,
        0.09481789916753769,
        0.030397608876228333,
        0.022352494299411774,
        -0.1228073388338089,
        -0.002373259048908949,
        -0.03302137553691864,
        0.12001625448465347,
        0.0019098594784736633,
        -0.016291454434394836,
        -0.050210509449243546,
        -0.01430259644985199,
        -0.04036330431699753,
        -0.06896475702524185,
        -0.10072048753499985,
        0.028842255473136902,
        0.07840320467948914,
        0.13296835124492645,
        -0.07229825854301453,
        0.05013135075569153,
        -0.0074811275117099285,
        0.13463588058948517,
        -0.06131349503993988,
        0.04940928891301155,
        -0.03865450620651245,
        -0.011982455849647522,
        -0.003659613197669387,
        -0.017858708277344704,
        0.062206149101257324,
        0.12137544900178909,
        -0.08213450014591217,
        -0.03902136906981468,
        -0.11259713023900986,
        -0.01650153659284115,
        0.07446353882551193,
        0.11145848780870438,
        0.14071588218212128,
        0.028246790170669556,
        0.13413949310779572,
        -0.07894125580787659,
        0.09528972208499908,
        0.1320948451757431,
        -0.07625553011894226,
        0.04034491628408432,
        0.14173761010169983,
        0.06170196831226349,
        -0.06607857346534729,
        0.054173365235328674,
        -0.090716153383255,
        0.1325109899044037,
        -0.06108598783612251,
        -0.10403857380151749,
        -0.0838787630200386,
        -0.05237874388694763,
        0.12006635963916779,
        -0.08196373283863068,
        0.01748720370233059
      ],
      [
        0.058280136436223984,
        0.014643414877355099,
        0.1340564787387848,
        0.048943739384412766,
        -0.0715046301484108,
        -0.10242600739002228,
        0.16926126182079315,
        -0.054472342133522034,
        0.06896811723709106,
        -0.034466445446014404,
        -0.06715120375156403,
        0.0010607093572616577,
        0.011323741637170315,
        0.06509189307689667,
        -0.08188233524560928,
        -0.03486166149377823,
        0.007599562406539917,
        0.0231042318046093,
        0.048037365078926086,
        -0.14326219260692596,
        0.038796667009592056,
        0.022628717124462128,
        0.07832197844982147,
        -0.06393951177597046,
        0.06324128061532974,
        0.08907143771648407,
        -0.043509989976882935,
        0.1220623180270195,
        -0.07780718803405762,
        -0.10325494408607483,
        -0.05754055082798004,
        -0.0914040207862854,
        0.12317241728305817,
        -0.04279369115829468,
        0.1072758287191391,
        -0.08287825435400009,
        -0.10266560316085815,
        0.03952169045805931,
        -0.16505204141139984,
        -0.009787403978407383,
        0.12840215861797333,
        0.11339734494686127,
        0.1276511698961258,
        0.08851703256368637,
        0.17989635467529297,
        -0.008562740869820118,
        -0.13317839801311493,
        0.1563916951417923,
        0.05427532270550728,
        0.009013161063194275,
        0.07019344717264175,
        -0.041290830820798874,
        -0.009647279977798462,
        0.06493110954761505,
        -0.034806959331035614,
        0.020278140902519226,
        0.1533738374710083,
        0.05289143696427345,
        0.08625403791666031,
        0.058514878153800964,
        -0.08991937339305878,
        0.04042509198188782,
        -0.07435233891010284,
        0.12183495610952377
      ],
      [
        -0.11405331641435623,
        0.12332722544670105,
        0.025528673082590103,
        0.10733744502067566,
        -0.032862450927495956,
        -0.105747289955616,
        -0.03638443350791931,
        -0.07011811435222626,
        0.11384518444538116,
        -0.04220817983150482,
        0.006358853541314602,
        0.12377522885799408,
        0.10582765191793442,
        0.06695766746997833,
        0.11533131450414658,
        0.028790447860956192,
        -0.07540073990821838,
        -0.06212155893445015,
        0.09855848550796509,
        -0.15157897770404816,
        -0.06649484485387802,
        -0.08012599498033524,
        -0.08169767260551453,
        0.1092214584350586,
        0.012281669303774834,
        -0.11693941056728363,
        0.11394588649272919,
        0.036980293691158295,
        0.04171961918473244,
        -0.08948327600955963,
        0.10536611825227737,
        -0.022247254848480225,
        0.01731918752193451,
        0.017817988991737366,
        -0.04686993733048439,
        0.04406260326504707,
        0.09641551226377487,
        -0.03588690981268883,
        0.00512180058285594,
        -0.12623915076255798,
        0.07996265590190887,
        -0.004637420643121004,
        -0.00977211631834507,
        -0.10078746825456619,
        0.07737135142087936,
        0.03783023729920387,
        0.024234555661678314,
        0.08583881705999374,
        0.02810211479663849,
        0.12102417647838593,
        -0.07028979063034058,
        0.0185367614030838,
        0.0920388251543045,
        0.04549579322338104,
        0.01748015731573105,
        0.08622273802757263,
        0.0004724610480479896,
        0.1012798622250557,
        -0.06866374611854553,
        -0.10656530410051346,
        0.07742637395858765,
        0.11013977974653244,
        0.10445722937583923,
        -0.10872962325811386
      ],
      [
        0.10547333210706711,
        -0.06161225214600563,
        -0.02722255513072014,
        0.03469917178153992,
        0.0718836560845375,
        0.1532970815896988,
        -0.03770408034324646,
        0.08144348859786987,
        -0.047150868922472,
        0.0813555121421814,
        -0.32064762711524963,
        -0.10270524024963379,
        0.007928717881441116,
        -0.05457866191864014,
        0.012725742533802986,
        0.16289296746253967,
        0.0059070885181427,
        0.09475568681955338,
        -0.07730285823345184,
        0.0682738646864891,
        0.02668764628469944,
        0.21985085308551788,
        -0.0786704421043396,
        -0.11718033254146576,
        -0.1609378457069397,
        -0.0439327210187912,
        0.05453267693519592,
        -0.14976921677589417,
        0.04159485921263695,
        -0.041477203369140625,
        -0.02055361680686474,
        -0.050766706466674805,
        0.09496363997459412,
        0.09626275300979614,
        0.09282325208187103,
        0.11130309104919434,
        -0.1475069671869278,
        -0.36531245708465576,
        -0.018812740221619606,
        0.23039782047271729,
        -0.01852845959365368,
        -0.09580280631780624,
        -0.05255863815546036,
        -0.20248737931251526,
        -0.1315729171037674,
        -0.1477491557598114,
        0.14246560633182526,
        -0.05503089725971222,
        -0.08738875389099121,
        0.11405287683010101,
        -0.01907660998404026,
        0.15224608778953552,
        -0.025888532400131226,
        0.06334322690963745,
        0.0015661058714613318,
